{
  "labels": [
    "company",
    "culture",
    "management",
    "policy",
    "prioritization"
  ],
  "vocab": [
    "about",
    "accountability",
    "allowed",
    "and",
    "are",
    "asks",
    "at",
    "balancing",
    "blockers",
    "build",
    "can",
    "collaborative",
    "company",
    "conduct",
    "conflict",
    "culture",
    "day",
    "deadlines",
    "describe",
    "do",
    "does",
    "drug",
    "during",
    "environment",
    "focus",
    "for",
    "handle",
    "help",
    "hours",
    "how",
    "i",
    "is",
    "leaders",
    "like",
    "manage",
    "management",
    "me",
    "mission",
    "my",
    "need",
    "office",
    "on",
    "one",
    "ones",
    "plan",
    "products",
    "reprioritize",
    "rules",
    "run",
    "should",
    "smoke",
    "sprint",
    "tasks",
    "team",
    "tell",
    "the",
    "this",
    "tickets",
    "to",
    "urgent",
    "use",
    "we",
    "what",
    "when",
    "work",
    "workplace",
    "you",
    "your"
  ],
  "weights": [
    [
      0.4965546145925542,
      -0.08945918397154522,
      -0.10934705427600917,
      -0.11576279721464415,
      -0.23702040241012728,
      -0.11576279721464415,
      -0.10934705427600917,
      -0.11576279721464415,
      -0.17528697556325595,
      0.5551540466231674,
      -0.23978321169472264,
      -0.15013635570815295,
      1.204417759634953,
      -0.23702040241012728,
      -0.08902133334751307,
      -0.3429348182081312,
      -0.19984034971489198,
      -0.08902133334751307,
      -0.09992017485744599,
      -0.18533050006382346,
      0.7755908128298288,
      -0.10934705427600917,
      -0.11837852547506379,
      -0.15013635570815295,
      0.39572374176991676,
      -0.12140468621965847,
      -0.17528697556325595,
      -0.11576279721464415,
      -0.11837852547506379,
      -0.5997751646827454,
      -0.20739985882257672,
      -0.5024980533348472,
      -0.09587131609227839,
      -0.2430146433506852,
      -0.08945918397154522,
      -0.17528697556325595,
      0.4965546145925542,
      0.4965546145925542,
      -0.12140468621965847,
      -0.11576279721464415,
      -0.11837852547506379,
      0.2998524256776385,
      -0.09587131609227839,
      -0.09587131609227839,
      -0.08902133334751307,
      0.39572374176991676,
      -0.12140468621965847,
      -0.23702040241012728,
      -0.09587131609227839,
      -0.08902133334751307,
      -0.11837852547506379,
      -0.12140468621965847,
      -0.08902133334751307,
      -0.08945918397154522,
      0.4965546145925542,
      0.5051215982441903,
      0.4337493604035093,
      -0.11576279721464415,
      -0.09992017485744599,
      -0.11576279721464415,
      -0.10934705427600917,
      -0.12140468621965847,
      0.4708427426322711,
      -0.08902133334751307,
      -0.23075174049566766,
      -0.23702040241012728,
      -0.08945918397154522,
      -0.2430146433506852
    ],
    [
      -0.1668593991799763,
      -0.13009278007522437,
      -0.21923794606032518,
      -0.12450671158098722,
      -0.18900684555246094,
      -0.12450671158098722,
      -0.21923794606032518,
      -0.12450671158098722,
      -0.15631801017723318,
      -0.15873514809537972,
      -0.22602672786372055,
      0.7283221746499318,
      0.12329243205314565,
      -0.18900684555246094,
      -0.12669465316510686,
      1.0130459242052126,
      0.8777668473957073,
      -0.12669465316510686,
      0.43888342369785366,
      -0.2406258521477893,
      -0.4403286794514716,
      -0.21923794606032518,
      -0.12711607307300812,
      0.7283221746499318,
      -0.1252755211788578,
      -0.09891065479071241,
      -0.15631801017723318,
      -0.12450671158098722,
      -0.12711607307300812,
      0.20468365915980133,
      -0.2538107262381152,
      1.083246729096964,
      -0.11053307207256496,
      0.57416250050736,
      -0.13009278007522437,
      -0.15631801017723318,
      -0.1668593991799763,
      -0.1668593991799763,
      -0.09891065479071241,
      -0.12450671158098722,
      -0.12711607307300812,
      -0.23580859325142292,
      -0.11053307207256496,
      -0.11053307207256496,
      -0.12669465316510686,
      -0.1252755211788578,
      -0.09891065479071241,
      -0.18900684555246094,
      -0.11053307207256496,
      -0.12669465316510686,
      -0.12711607307300812,
      -0.09891065479071241,
      -0.12669465316510686,
      -0.13009278007522437,
      -0.1668593991799763,
      0.24718040873863595,
      -0.25764580288609223,
      -0.12450671158098722,
      0.43888342369785366,
      -0.12450671158098722,
      -0.21923794606032518,
      -0.09891065479071241,
      0.10114498568066092,
      -0.12669465316510686,
      -0.31814860085103763,
      -0.18900684555246094,
      -0.13009278007522437,
      0.57416250050736
    ],
    [
      -0.0948066234929851,
      0.4443648267561997,
      -0.11918483979508014,
      -0.1220874591045612,
      -0.10729609755692979,
      -0.1220874591045612,
      -0.11918483979508014,
      -0.1220874591045612,
      0.6043377025339481,
      -0.13116421123088084,
      -0.22292603183077836,
      -0.22457254810224025,
      -0.40803555883605064,
      -0.10729609755692979,
      -0.1764448264691887,
      -0.19449759226581853,
      -0.2196725158072135,
      -0.1764448264691887,
      -0.10983625790360675,
      0.8459443855974005,
      0.37577010155309554,
      -0.11918483979508014,
      -0.12262608604882937,
      -0.22457254810224025,
      -0.09740338974997235,
      -0.10029994578194906,
      0.6043377025339481,
      -0.1220874591045612,
      -0.12262608604882937,
      1.0492647135599193,
      -0.2990709125180182,
      -0.428418722259532,
      0.4015795588412002,
      -0.08466133436221185,
      0.4443648267561997,
      0.6043377025339481,
      -0.0948066234929851,
      -0.0948066234929851,
      -0.10029994578194906,
      -0.1220874591045612,
      -0.12262608604882937,
      0.30417616909122747,
      0.4015795588412002,
      0.4015795588412002,
      -0.1764448264691887,
      -0.09740338974997235,
      -0.10029994578194906,
      -0.10729609755692979,
      0.4015795588412002,
      -0.1764448264691887,
      -0.12262608604882937,
      -0.10029994578194906,
      -0.1764448264691887,
      0.4443648267561997,
      -0.0948066234929851,
      -0.524078658902128,
      -0.2314641570128301,
      -0.1220874591045612,
      -0.10983625790360675,
      -0.1220874591045612,
      -0.11918483979508014,
      -0.10029994578194906,
      -0.42052503289999527,
      -0.1764448264691887,
      -0.2194847855770291,
      -0.10729609755692979,
      0.4443648267561997,
      -0.08466133436221185
    ],
    [
      -0.13412043590780143,
      -0.10189859552842495,
      0.6057840203777959,
      -0.13278444869110176,
      0.6475574794962413,
      -0.13278444869110176,
      0.6057840203777959,
      -0.13278444869110176,
      -0.1214270287376563,
      -0.1331611708618316,
      0.3949209455838905,
      -0.21029283174148794,
      -0.5338262703950549,
      0.6475574794962413,
      -0.13013430848731922,
      -0.27471800411938796,
      -0.2338615371222081,
      -0.13013430848731922,
      -0.11693076856110406,
      -0.19019002955992498,
      -0.3633456276666265,
      0.6057840203777959,
      0.5748273589109909,
      -0.21029283174148794,
      -0.10875742806713859,
      -0.1799064133271006,
      -0.1214270287376563,
      -0.13278444869110176,
      0.5748273589109909,
      -0.6520441985263883,
      0.4446930504236728,
      0.23770395307802378,
      -0.08829143403150028,
      -0.15778723555828345,
      -0.10189859552842495,
      -0.1214270287376563,
      -0.13412043590780143,
      -0.13412043590780143,
      -0.1799064133271006,
      -0.13278444869110176,
      0.5748273589109909,
      -0.19704886209863873,
      -0.08829143403150028,
      -0.08829143403150028,
      -0.13013430848731922,
      -0.10875742806713859,
      -0.1799064133271006,
      0.6475574794962413,
      -0.08829143403150028,
      -0.13013430848731922,
      0.5748273589109909,
      -0.1799064133271006,
      -0.13013430848731922,
      -0.10189859552842495,
      -0.13412043590780143,
      0.19438678377981466,
      -0.3130675841889314,
      -0.13278444869110176,
      -0.11693076856110406,
      -0.13278444869110176,
      0.6057840203777959,
      -0.1799064133271006,
      0.24785164500898924,
      -0.13013430848731922,
      0.4258776070506948,
      0.6475574794962413,
      -0.10189859552842495,
      -0.15778723555828345
    ],
    [
      -0.10076815601179048,
      -0.12291426718100591,
      -0.1580141802463809,
      0.49514141659129474,
      -0.11423413397672424,
      0.49514141659129474,
      -0.1580141802463809,
      0.49514141659129474,
      -0.15130568805580252,
      -0.13209351643507544,
      0.29381502580533103,
      -0.14332043909805034,
      -0.38584836245699305,
      -0.11423413397672424,
      0.5222951214691276,
      -0.20089550961187574,
      -0.22439244475139386,
      0.5222951214691276,
      -0.11219622237569693,
      -0.22979800382586188,
      -0.34768660726482603,
      -0.1580141802463809,
      -0.20670667431409007,
      -0.14332043909805034,
      -0.06428740277394829,
      0.500521700119421,
      -0.15130568805580252,
      0.49514141659129474,
      -0.20670667431409007,
      -0.0021290095105874402,
      0.3155884471550375,
      -0.39003390658060993,
      -0.10688373664485615,
      -0.08869928723617858,
      -0.12291426718100591,
      -0.15130568805580252,
      -0.10076815601179048,
      -0.10076815601179048,
      0.500521700119421,
      0.49514141659129474,
      -0.20670667431409007,
      -0.17117113941880452,
      -0.10688373664485615,
      -0.10688373664485615,
      0.5222951214691276,
      -0.06428740277394829,
      0.500521700119421,
      -0.11423413397672424,
      -0.10688373664485615,
      0.5222951214691276,
      -0.20670667431409007,
      0.500521700119421,
      0.5222951214691276,
      -0.12291426718100591,
      -0.10076815601179048,
      -0.42261013186051305,
      0.368428183684345,
      0.49514141659129474,
      -0.11219622237569693,
      0.49514141659129474,
      -0.1580141802463809,
      0.500521700119421,
      -0.39931434042192715,
      0.5222951214691276,
      0.3425075198730394,
      -0.11423413397672424,
      -0.12291426718100591,
      -0.08869928723617858
    ]
  ],
  "bias": [
    -0.1971910455007419,
    0.008081283853306856,
    -0.04010153146708707,
    0.2126767592842789,
    0.016534533830242924
  ]
}